digraph Tree {
node [shape=box, fontname="helvetica"] ;
edge [fontname="helvetica"] ;
0 [label="prompt_avg_chars <= 898.5\nsquared_error = 163.42\nsamples = 97\nvalue = 91.66"] ;
1 [label="Q_0 <= 0.746\nsquared_error = 126.394\nsamples = 96\nvalue = 92.292"] ;
0 -> 1 [labeldistance=2.5, labelangle=45, headlabel="True"] ;
2 [label="Q_5 <= 0.225\nsquared_error = 64.35\nsamples = 94\nvalue = 93.032"] ;
1 -> 2 ;
3 [label="Q_5 <= 0.21\nsquared_error = 167.028\nsamples = 18\nvalue = 86.5"] ;
2 -> 3 ;
4 [label="Q_6 <= 0.16\nsquared_error = 83.965\nsamples = 16\nvalue = 89.688"] ;
3 -> 4 ;
5 [label="Q_4 <= 0.068\nsquared_error = 51.688\nsamples = 8\nvalue = 95.25"] ;
4 -> 5 ;
6 [label="squared_error = 0.0\nsamples = 1\nvalue = 78.0"] ;
5 -> 6 ;
7 [label="Q_0 <= 0.14\nsquared_error = 10.49\nsamples = 7\nvalue = 97.714"] ;
5 -> 7 ;
8 [label="response_avg_chars <= 144.163\nsquared_error = 0.667\nsamples = 6\nvalue = 99.0"] ;
7 -> 8 ;
9 [label="squared_error = 0.0\nsamples = 2\nvalue = 100.0"] ;
8 -> 9 ;
10 [label="response_avg_chars <= 403.283\nsquared_error = 0.25\nsamples = 4\nvalue = 98.5"] ;
8 -> 10 ;
11 [label="squared_error = 0.0\nsamples = 2\nvalue = 99.0"] ;
10 -> 11 ;
12 [label="squared_error = 0.0\nsamples = 2\nvalue = 98.0"] ;
10 -> 12 ;
13 [label="squared_error = 0.0\nsamples = 1\nvalue = 90.0"] ;
7 -> 13 ;
14 [label="Q_0 <= 0.109\nsquared_error = 54.359\nsamples = 8\nvalue = 84.125"] ;
4 -> 14 ;
15 [label="Q_5 <= 0.166\nsquared_error = 1.0\nsamples = 2\nvalue = 74.0"] ;
14 -> 15 ;
16 [label="squared_error = 0.0\nsamples = 1\nvalue = 75.0"] ;
15 -> 16 ;
17 [label="squared_error = 0.0\nsamples = 1\nvalue = 73.0"] ;
15 -> 17 ;
18 [label="response_avg_chars <= 124.951\nsquared_error = 26.583\nsamples = 6\nvalue = 87.5"] ;
14 -> 18 ;
19 [label="Q_0 <= 0.171\nsquared_error = 12.688\nsamples = 4\nvalue = 84.75"] ;
18 -> 19 ;
20 [label="Q_1 <= 0.089\nsquared_error = 4.667\nsamples = 3\nvalue = 83.0"] ;
19 -> 20 ;
21 [label="response_avg_chars <= 55.887\nsquared_error = 0.25\nsamples = 2\nvalue = 84.5"] ;
20 -> 21 ;
22 [label="squared_error = 0.0\nsamples = 1\nvalue = 85.0"] ;
21 -> 22 ;
23 [label="squared_error = 0.0\nsamples = 1\nvalue = 84.0"] ;
21 -> 23 ;
24 [label="squared_error = 0.0\nsamples = 1\nvalue = 80.0"] ;
20 -> 24 ;
25 [label="squared_error = 0.0\nsamples = 1\nvalue = 90.0"] ;
19 -> 25 ;
26 [label="prompt_avg_chars <= 5.21\nsquared_error = 9.0\nsamples = 2\nvalue = 93.0"] ;
18 -> 26 ;
27 [label="squared_error = 0.0\nsamples = 1\nvalue = 96.0"] ;
26 -> 27 ;
28 [label="squared_error = 0.0\nsamples = 1\nvalue = 90.0"] ;
26 -> 28 ;
29 [label="Q_3 <= 0.406\nsquared_error = 100.0\nsamples = 2\nvalue = 61.0"] ;
3 -> 29 ;
30 [label="squared_error = 0.0\nsamples = 1\nvalue = 71.0"] ;
29 -> 30 ;
31 [label="squared_error = 0.0\nsamples = 1\nvalue = 51.0"] ;
29 -> 31 ;
32 [label="#error <= 12.5\nsquared_error = 27.533\nsamples = 76\nvalue = 94.579"] ;
2 -> 32 ;
33 [label="Q_8 <= 0.841\nsquared_error = 25.171\nsamples = 74\nvalue = 94.865"] ;
32 -> 33 ;
34 [label="Q_8 <= 0.136\nsquared_error = 22.851\nsamples = 71\nvalue = 95.225"] ;
33 -> 34 ;
35 [label="Q_1 <= 0.13\nsquared_error = 6.889\nsamples = 3\nvalue = 86.667"] ;
34 -> 35 ;
36 [label="prompt_avg_chars <= 3.113\nsquared_error = 0.25\nsamples = 2\nvalue = 88.5"] ;
35 -> 36 ;
37 [label="squared_error = 0.0\nsamples = 1\nvalue = 88.0"] ;
36 -> 37 ;
38 [label="squared_error = 0.0\nsamples = 1\nvalue = 89.0"] ;
36 -> 38 ;
39 [label="squared_error = 0.0\nsamples = 1\nvalue = 83.0"] ;
35 -> 39 ;
40 [label="#user_prompts <= 90.0\nsquared_error = 20.181\nsamples = 68\nvalue = 95.603"] ;
34 -> 40 ;
41 [label="#next <= 0.5\nsquared_error = 18.779\nsamples = 67\nvalue = 95.761"] ;
40 -> 41 ;
42 [label="Q_5 <= 0.459\nsquared_error = 19.2\nsamples = 58\nvalue = 95.276"] ;
41 -> 42 ;
43 [label="response_avg_chars <= 19.044\nsquared_error = 11.173\nsamples = 15\nvalue = 97.4"] ;
42 -> 43 ;
44 [label="squared_error = 11.0\nsamples = 4\nvalue = 93.0"] ;
43 -> 44 ;
45 [label="squared_error = 1.636\nsamples = 11\nvalue = 99.0"] ;
43 -> 45 ;
46 [label="response_avg_chars <= 203.796\nsquared_error = 19.877\nsamples = 43\nvalue = 94.535"] ;
42 -> 46 ;
47 [label="squared_error = 17.645\nsamples = 42\nvalue = 94.786"] ;
46 -> 47 ;
48 [label="squared_error = 0.0\nsamples = 1\nvalue = 84.0"] ;
46 -> 48 ;
49 [label="#next <= 5.0\nsquared_error = 4.765\nsamples = 9\nvalue = 98.889"] ;
41 -> 49 ;
50 [label="prompt_avg_chars <= 0.048\nsquared_error = 0.122\nsamples = 7\nvalue = 99.857"] ;
49 -> 50 ;
51 [label="squared_error = 0.0\nsamples = 1\nvalue = 99.0"] ;
50 -> 51 ;
52 [label="squared_error = 0.0\nsamples = 6\nvalue = 100.0"] ;
50 -> 52 ;
53 [label="Q_4 <= 0.855\nsquared_error = 6.25\nsamples = 2\nvalue = 95.5"] ;
49 -> 53 ;
54 [label="squared_error = 0.0\nsamples = 1\nvalue = 93.0"] ;
53 -> 54 ;
55 [label="squared_error = 0.0\nsamples = 1\nvalue = 98.0"] ;
53 -> 55 ;
56 [label="squared_error = 0.0\nsamples = 1\nvalue = 85.0"] ;
40 -> 56 ;
57 [label="#no <= 1.0\nsquared_error = 4.222\nsamples = 3\nvalue = 86.333"] ;
33 -> 57 ;
58 [label="Q_0 <= 0.198\nsquared_error = 1.0\nsamples = 2\nvalue = 85.0"] ;
57 -> 58 ;
59 [label="squared_error = 0.0\nsamples = 1\nvalue = 84.0"] ;
58 -> 59 ;
60 [label="squared_error = 0.0\nsamples = 1\nvalue = 86.0"] ;
58 -> 60 ;
61 [label="squared_error = 0.0\nsamples = 1\nvalue = 89.0"] ;
57 -> 61 ;
62 [label="squared_error = 0.0\nsamples = 2\nvalue = 84.0"] ;
32 -> 62 ;
63 [label="#entropy <= 2.0\nsquared_error = 1806.25\nsamples = 2\nvalue = 57.5"] ;
1 -> 63 ;
64 [label="squared_error = 0.0\nsamples = 1\nvalue = 15.0"] ;
63 -> 64 ;
65 [label="squared_error = 0.0\nsamples = 1\nvalue = 100.0"] ;
63 -> 65 ;
66 [label="squared_error = 0.0\nsamples = 1\nvalue = 31.0"] ;
0 -> 66 [labeldistance=2.5, labelangle=-45, headlabel="False"] ;
}
